GIS
1
0.0
9
手机数码
服装服饰
母婴童装
图书音像
玩乐爱好
电脑办公
鞋包配饰
家居生活
运动户外
24
33 0
1 0 1 6
1 0 3
2 0 3 7
1 0 5
1 0 6
67 1
2 1 2
1 1 2 8
1 1 3
10 1 6
1 1 6 8
1 1 8
5 2
140 3
5 3 4
1 3 5
2 3 6
9 4
31 5
45 6
1 6 8
13 7
9 8
383
机壳
天
保护套
600
cdma
保护
外壳
模
双
套
x
116
联想
待机
手
电信
待
lenovoa
飞利浦
翼
翻
手机
7295
派
8295
酷
老人
超长
590
机
5879
侧
壳
皮
a
邮
包
c
真皮
tbna
喜爱
2012
军
中老年
夏
皮衣
丽
18
11
民族
短袖
绿色
褶皱
中
男装
俏皮
格
女装
t
男式
可爱
莱
男
春
棉
仕
恤
select
青少年
仟
褶
卖
妈妈
思
薄
真丝
披风
背心
风衣
卡
德
汗衫
热
汗背心
长裤
蛋糕
年
加
复古
加大
品牌
风格
修身
411410007
码
绵羊
外贸
肥
1035
服
韩国
牛仔裤
帽子
1410007
外套
保暖
装
特价
代购
新
冬
2013
超
p
秋
新品
潮
毛
男士
女士
正品
款
孕妇
趣
千
会
日本
zook
附
商城
connexion
上来
高潮
城
农
middot
世界
模型
1
通
祖
虫子
镜头
指南
正版
金融
21
20
说
consider
曾
研究
教材
核心
课
histori
disposit
识
出版
张
专
关系
孕产妇
bull
怎么
书籍
丹麦
译
与
光盘
创业
高等学校
保健
篇
美
出版社
march
phenomena
probabl
实
bf
简史
人民
科学技术
liverpool
动画
and
易
心理学
文献
十
梁
globe
law
福
勇士
五
良知
成
which
caus
克
recollect
基础
97875
二
westralian
中医
姑娘
电视
世纪
of
职高
ipsec
on
9787801744722
回归
邮电
系列
务
风暴
present
设计
斯
图
cisco
类
益
战略
古籍
romanc
volcano
童话
高等院校
尔
product
传播
old
last
分
朱
传世
花
邪恶
音乐
宝库
磊
lemurian
红
增长
determin
特
规划
state
实战
王国
with
chri
the
天地
past
蚀
上海
978754395
vpn
their
持续
的
著
海
中国
里
专业
高
三
牌坊
传说
古建筑
梦
何
长廊
荣耀
艺术
金
认
4604
8
询
请
220
7216
n
型号
mbl
s
准
to
8051
se
stk
ipd
icl
lar
130
46
ad
hyb
sop
duoz
7555
93
旺
73311
咨询
诚信
时尚
跟
转卖
ublu
女式
裤带
领子
蕾
领
仿真
披
丝
台
折
草
骑士
扣
软
甜美
搭
宽
坡
家
单
花边
针
蝴蝶结
腰带
靴
靴子
柔
短短
休闲
兔毛
皮带
白色
防水
新款
版
面皮
韩
鞋
假
经典
百
女
28
罐
g
组合
元
振兴
盒
瓶
1397
玻璃
调味
调料
套装
抓
wolfskin
专柜
绒衣
狼
17553
jack
爪
1015
0.34356163698431164
0.34712979454080606
0.34356163698431164
0.34712979454080606
0.34712979454080606
0.347459977217344
0.347459977217344
0.34712979454080606
0.347129794540806
0.34585594475025966
0.34712979454080606
0.34712979454080606
0.347459977217344
0.34712979454080606
0.34356163698431164
0.34712979454080606
0.34712979454080606
0.347459977217344
0.34712979454080606
0.34712979454080606
0.347459977217344
0.3460155248162291
0.34356163698431136
0.34356163698431186
0.34356163698431164
0.34356163698431186
0.34712979454080606
0.34712979454080606
0.34745997721734423
0.34712979454080606
0.34356163698431164
0.347459977217344
0.347459977217344
0.306749502150033
0.19615536925969848
0.10519995393066883
0.27551004979052457
0.6504856889343235
0.01849445811363177
0.4830940309241793
-0.145069587840549
0.01849445811363177
0.4830940309241793
-0.145069587840549
0.260030665184855
0.42086030688539616
0.31165642257269777
0.2329871743515893
0.38120023022240074
0.35338596353424145
0.4799080819606342
0.5008105463314951
0.35199361050930245
0.38120023022240074
0.5008105463314951
0.35199361050930245
0.38120023022240074
0.35338596353424134
0.4387961248411707
0.38120023022240074
0.5008105463314951
0.35199361050930245
0.4387961248411707
0.38120023022240074
0.35338596353424145
0.4799080819606342
0.35199361050930245
0.38120023022240074
0.38120023022240074
0.35338596353424145
0.4393549366058819
0.4799080819606342
0.38120023022240074
0.36721893976691306
0.4799080819606342
0.38120023022240074
0.5008105463314951
0.4387961248411707
0.35199361050930245
0.35199361050930245
0.4799080819606342
0.35199361050930245
0.5008105463314951
0.4387961248411707
0.35199361050930245
0.35199361050930245
0.4387961248411707
0.35199361050930245
0.38120023022240074
0.5008105463314951
0.4387961248411707
0.4799080819606342
0.4387961248411707
0.4799080819606342
0.35338596353424145
0.4387961248411707
0.35199361050930245
0.4387961248411707
0.35199361050930245
0.38120023022240074
0.4387961248411707
0.4387961248411707
0.5008105463314951
0.35199361050930245
0.5008105463314951
0.38120023022240074
0.35199361050930245
0.38120023022240074
0.35338596353424145
0.35338596353424145
0.4799080819606342
0.35338596353424145
0.5008105463314951
0.35199361050930245
0.35338596353424145
0.32265352310958645
0.5832206542440521
0.32265352310958645
0.5832206542440521
0.2417215132937292
0.5133133930928162
0.2939819165425994
0.29349623851566625
0.22188034739481663
0.25762548796360357
0.2586994938226742
0.36591660116573965
0.15118490703305867
0.25175404993944855
0.2734525153860698
0.2477193848140526
0.7588994320046012
0.3260875001175046
0.2171964105846167
0.382753928909981
0.23097469902405124
0.33950424173720606
0.2660310491285377
0.29981826214197055
0.19118128642789156
0.33950424173720606
0.2660310491285377
0.25909677641565987
0.27183279405790867
0.3791050353914316
0.1274029365258094
0.2777084370336957
0.33641109525505725
0.3515691642168565
0.719371903925201
0.719371903925201
0.719371903925201
0.719371903925201
0.719371903925201
0.3522503636055482
0.5146923075491031
0.28185198455513005
0.18027359141205618
0.45013848684739927
0.35611799196175764
0.45013848684739927
0.5139035922013655
0.28185198455513005
0.35611799196175764
0.43787263586221864
0.4821271670138525
0.28185198455513005
0.3522503636055482
0.3315948386687219
0.4117707930030793
0.7036202481921924
0.5792531462737837
1.2690382695711362
0.28185198455513005
0.35611799196175764
0.43787263586221864
0.18027359141205618
0.35611799196175764
0.5139035922013655
0.368498400698784
0.3522503636055482
0.28185198455513005
0.18027359141205618
0.18027359141205618
0.28185198455513005
0.3315948386687219
0.5146923075491031
0.28185198455513005
0.5139035922013655
0.4408444098542535
0.3522503636055482
0.4408444098542535
0.4117707930030793
0.35611799196175764
0.3315948386687219
0.5139035922013655
0.5146923075491031
0.28185198455513005
0.5146923075491031
0.4408444098542535
0.35611799196175764
0.3315948386687219
0.3977115422867134
0.18027359141205618
0.18027359141205618
0.18027359141205618
0.28185198455513005
0.3827596495288822
0.5146923075491031
0.3315948386687219
0.4408444098542535
1.2705246529252177
0.4117707930030792
0.1802735914120561
0.4408444098542535
1.2690382695711362
0.4408444098542535
0.4117707930030793
0.43787263586221864
0.18027359141205618
0.18027359141205618
0.43787263586221864
0.45013848684739927
0.4117707930030793
0.5139035922013655
0.43787263586221864
0.18027359141205618
0.18027359141205618
0.35225036360554823
1.2705246529252177
0.43787263586221864
0.35611799196175764
0.4117707930030793
0.9417504177751083
0.43787263586221864
0.45013848684739927
0.5139035922013655
0.28185198455513005
0.3961148924282478
0.28185198455513005
0.7036202481921924
0.18027359141205618
0.43787263586221864
0.3522503636055482
0.3315948386687219
0.3925734476875408
0.28185198455513005
0.45013848684739927
0.18027359141205618
0.4117707930030793
0.34187008514267825
0.3315948386687219
0.7036202481921924
0.4117707930030793
0.28185198455513005
0.3522503636055482
0.43787263586221864
0.9417504177751083
0.18027359141205618
0.35611799196175753
0.4117707930030793
0.3315948386687219
0.18027359141205618
0.5139035922013655
1.2705246529252177
0.9417504177751083
0.4117707930030793
0.28185198455513005
0.35611799196175764
0.3315948386687219
0.3315948386687219
0.5146923075491031
0.35611799196175764
0.4408444098542535
0.9417504177751083
0.45013848684739927
0.3522503636055482
0.18027359141205618
0.3315948386687219
0.34480264311139175
0.18027359141205618
0.7036202481921924
0.45013848684739927
0.18027359141205618
0.3522503636055482
0.28302141757370886
0.35611799196175764
0.18027359141205618
0.3315948386687219
0.4408444098542535
0.4408444098542535
0.7036202481921924
0.18027359141205612
0.3522503636055482
0.328964399053286
0.24034073447219484
0.20213253201943873
0.3873350200264804
0.30883427466302343
0.3676556834708138
0.36861879084013305
0.3685684497412463
0.22084047897791995
0.3837115188810266
0.3961755228803681
0.4932083650541855
0.22504195203589616
0.2662822571606847
0.4385047799011037
0.2628591399560606
0.4687752300120066
0.4687752300120066
0.4687752300120066
0.4687752300120066
0.4687752300120066
0.4687752300120066
0.4687752300120066
0.4687752300120066
0.4687752300120066
0.6070486220883045
0.48834699613436877
0.500437671046737
1.2838830763184306
0.6070486220883045
0.48834699613436877
1.0168075599874746
0.48834699613436877
0.6070486220883045
1.0593650245886448
0.500437671046737
0.6070486220883045
0.48834699613436877
1.0593650245886448
0.48834699613436866
1.0168075599874746
0.842672609888855
0.842672609888855
0.6070486220883045
0.48834699613436877
0.500437671046737
0.6070486220883045
0.7760077567210942
0.500437671046737
0.500437671046737
0.842672609888855
0.500437671046737
0.7781585456633163
0.6070486220883045
0.7406862979079413
0.6070486220883045
0.3536303075597983
0.32429603917255484
0.370860875760086
0.370860875760086
0.32429603917255484
0.3536303075597983
0.370860875760086
0.370860875760086
0.370860875760086
0.370860875760086
0.370860875760086
0.370860875760086
0.32429603917255484
0.3536303075597983
0.370860875760086
0.32429603917255484
0.3536303075597983
0.32429603917255484
0.32429603917255484
0.3536303075597983
0.3536303075597983
0.32429603917255484
0.8727393534992723
0.8727393534992723
0.370860875760086
0.3536303075597983
0.8727393534992723
0.3536303075597983
0.32429603917255484
0.32429603917255484
0.370860875760086
0.32429603917255484
0.3536303075597983
0.370860875760086
0.3536303075597983
0.3536303075597983
0.32429603917255484
0.370860875760086
0.3536303075597983
0.32429603917255484
0.3536303075597983
0.5725415667017456
0.370860875760086
0.8727393534992723
0.3536303075597983
0.24105590553211378
0.4290350282487298
0.3742281880168389
0.3742281880168389
0.3742281880168389
0.3742281880168389
0.3742281880168389
0.3742281880168389
0.3742281880168389
0.3742281880168387
0.3742281880168389
0.3742281880168387
0.37422818801683916
0.3742281880168389
0.3742281880168389
0.49987697653083146
0.49987697653083146
0.49987697653083146
0.49987697653083146
0.49987697653083146
0.49987697653083146
0.49987697653083146
0.49987697653083146
0.49987697653083146
