GIS
1
0.0
6
鞋包配饰
服装服饰
图书音像
电脑办公
家居生活
运动户外
17
29 0
3 0 1
1 0 1 5
1 0 2
1 0 2 3
1 0 5
89 1
3 1 2
1 1 2 4
1 1 2 4 5
3 1 4
4 1 5
133 2
3 2 3
32 3
35 4
23 5
363
冰
夹
颗
天然
11
证
石
强
试
p
真皮
月光
种
家
卖
单
提前
蝴蝶结
戒
卡
光
斯里兰卡
驾驶证
行驶
裸
蓝
证件
驾照
鞋
双
男
面
正品
经典
包
套
ь
大
时尚
缎
简约
т
女式
拼接
路
冬装
中老年
学院
1813
clicknfunni
连衣裙
民族
流行
短袖
女
П
丝
东
格
女装
л
古
风
а
七
е
扣
美
黑白
圆领
莨
长袖
青少年
衬衫
衬衣
妮子
鸟
千
薄
真丝
宽松
背心
汗衫
防伪
袖
长
汗背心
料
印花
年
复古
斜边
潮
欧
大衣
针织
桑蚕丝
装
风格
衣袋
款
100
帽
排
休闲
修身
毛衣
码
带
分
呢
代购
kn
马甲
韩
韩国
毛
香云纱
大门
绒
外套
男士
绸
保暖
衫
天
宝宝
版
冬
2013
显
秋
瘦
中
棉
新款
加厚
connexion
建设
区划
2012
题
过
外
3
2
0
big
清
john
语
正版
de
王
consider
研究
孙
member
f
histori
disposit
报告
识
9787540763541
a
n
名家
bull
第
书籍
与
叫
现货
9787564133177
汤
to
教书
出版社
phenomena
march
probabl
元件
bf
历代
and
仇
庄子
brass
新疆
科学
法
europ
逍遥
梅
书法
globe
law
系统
caus
which
猫
基础
chang
于
for
认知
amateur
of
文
on
ou
新
art
发展
present
repouss
san
活
东南
proce
漓江
图
三字经
能力
directori
城市
volcano
practic
mp
浩
heaven
summar
product
年度
计算机
9787513613811
早
媛
峰
日本
气动
instruct
proceed
大学
中国
1754
letter
1855
le
模拟
determin
功能
保
friend
含
state
fin
智慧
with
histoir
the
past
in
manual
岁
考试
主体
their
有种
庭
l
01
邮
150
201
25
28
8
7202
抽屉
do
spacerslfret
j
anai
mbl
8051
7649
sr
sc
stv
沪
qfp
idt
ap
sbyv
ov
键盘
105
柜
旺
机
plcc
bga
咨询
江浙
迪
40
27
批发
之
子
e
超声波
w
泄漏
宝
检
仪
300
螺旋
星
55
大红
半
zai
牛仔
长裤
漏
王牌
节能灯
放电
裤
小脚
门
牛
检测
ld
服装
牛仔裤
女士
骑
夹克
adida
g
阿迪达斯
车
装备
徒步
越野
专柜
户外
防风
单车
91615
坐垫
moon
男子
行
自行车
鞍
山地
座
配件
0.3036227060394402
0.3187148475254648
0.3036227060394402
0.3036227060394402
0.3187148475254648
0.3187148475254648
0.3036227060394405
0.3036227060394402
0.3187148475254648
0.7691304833121178
0.3187148475254648
0.3036227060394402
0.3036227060394402
0.7691304833121178
0.3187148475254648
0.7691304833121178
0.3187148475254648
0.7691304833121178
0.3036227060394402
0.3187148475254648
0.3036227060394402
0.3036227060394402
0.3187148475254656
0.3187148475254648
0.3036227060394402
0.3036227060394402
0.3187148475254648
0.3187148475254648
0.7691304833121178
0.3014434859728967
-0.0119260644494195
0.2593827365482349
0.22764412417948812
0.14475286400131954
0.2784747956655256
0.20999227137133733
-0.1771001333756053
0.250401699945349
0.5991056323668924
0.297522620208281
0.22034218369800104
0.234214343639355
0.13281009993543313
0.24687152883235225
0.1913271362875212
0.2549622497536913
0.2925148842296938
0.3527944800222842
0.32847199068003724
0.27146997828899344
0.2549622497536913
0.2549622497536913
0.34895087778540845
0.32847199068003724
0.37861822105437987
0.32847199068003724
0.27146997828899344
0.43942882877786815
0.43942882877786815
0.27358289727109175
0.4103369078408738
0.2549622497536913
0.32847199068003724
0.3439495447353273
0.2549622497536913
0.32847199068003724
0.2925148842296938
0.2549622497536913
0.2925148842296938
0.2549622497536913
0.32847199068003724
0.27146997828899344
0.2549622497536913
0.2549622497536913
0.2549622497536913
0.27146997828899344
0.2549622497536913
0.37861822105437987
0.2549622497536913
0.32847199068003724
0.2925148842296938
0.4103369078408738
0.32847199068003724
0.32847199068003724
0.27146997828899344
0.2549622497536913
0.2549622497536913
0.4103369078408738
0.32847199068003724
0.35646093108190635
0.36405636043010897
0.4103369078408738
0.43942882877786815
0.2549622497536913
0.27146997828899344
0.4103369078408738
0.34895087778540845
0.32847199068003724
0.4103369078408738
0.33911579943305936
0.43942882877786815
0.36405636043010897
0.2549622497536913
0.27146997828899344
0.37102848376671677
0.32847199068003724
0.2925148842296938
0.4103369078408738
0.43942882877786815
0.37170500410003715
0.32847199068003724
0.34895087778540845
0.27146997828899344
0.37861822105437987
0.4103369078408738
0.3786182210543794
0.2925148842296938
0.34895087778540845
0.2549622497536913
0.2819641098343834
0.36383315826442025
0.43942882877786815
0.34895087778540845
0.2819641098343834
0.3736534225983373
0.3455484708220902
0.32847199068003724
0.2925148842296938
0.37861822105437987
0.35646093108190635
0.36405636043010897
0.32847199068003724
0.34895087778540845
0.43942882877786815
0.3212850091496942
0.30348363606921175
0.3368029442279359
0.24057346307791466
0.1170754520405238
0.442643452307192
0.2925156645814535
-0.0025817346577625315
-0.026585878228773806
0.2676397711329231
-0.01631614705242176
-0.2988624552822285
-0.029813819022656868
0.14973786269622022
0.3192611703571836
0.2851002575298039
0.016869889559493825
0.14973786269622022
0.3192611703571836
0.1917858399005901
0.3492455723846649
0.29581187429990663
0.1740146660102134
0.30892634813060565
0.08249277608844448
0.3326284985083075
0.1519718673533215
0.1679577637041361
0.4329808125966823
0.4329808125966823
0.4297130942571896
0.37470964118671907
0.49248464513170975
0.3915450727323368
0.37293159831193634
0.4225819697445156
0.36407415208589855
1.0314874280601976
0.36407415208589855
0.48578866088040024
0.37470964118671907
0.44415024128824493
0.48578866088040024
0.49931646262896656
0.1679577637041361
0.43080142991824083
0.49248464513170975
0.7835518012327785
0.4329808125966823
0.1679577637041361
0.1679577637041361
0.4297130942571896
0.7576321834885112
0.36407415208589855
0.5872383449207804
0.37470964118671907
0.49248464513170975
0.48578866088040024
0.505303878510751
0.49248464513170975
0.5878238858247007
0.5061886002034535
0.37470964118671907
0.3915450727323368
0.3915450727323368
0.6310083201942736
0.36407415208589855
0.3915450727323368
0.1679577637041361
0.1679577637041361
0.1679577637041361
0.7576321834885112
0.38227769470746703
0.49248464513170975
0.27365528903475395
0.4297130942571896
0.5061886002034535
0.4140722402678518
0.4329808125966823
0.3915450727323368
0.5061886002034535
1.0314874280601976
0.5061886002034535
0.49248464513170975
0.49248464513170975
0.1679577637041361
0.1679577637041361
0.7576321834885112
0.1679577637041361
0.1679577637041361
0.4329808125966823
0.7538976420185256
1.0314874280601976
0.36407415208589855
0.4140722402678518
0.36407415208589855
0.4140722402678518
0.29052916741951185
0.3915450727323368
0.1679577637041361
0.48578866088040024
0.37470964118671907
0.4140722402678518
0.4297130942571896
0.305477901987037
0.4140722402678518
0.48578866088040024
0.5061886002034535
0.3915450727323368
0.48578866088040024
0.36407415208589855
0.7576321834885112
0.36407415208589855
0.37470964118671907
0.7835518012327785
0.4297130942571896
0.1679577637041361
0.4140722402678518
0.37470964118671907
0.3915450727323368
0.6310083201942736
0.7835518012327785
0.1679577637041361
0.4297130942571896
0.7538976420185256
0.4329808125966823
0.36407415208589855
0.5061886002034535
0.36407415208589855
0.37470964118671907
0.7576321834885112
0.4140722402678518
0.7835518012327785
0.505303878510751
0.4297130942571896
0.48578866088040024
0.6310083201942736
0.6310083201942736
0.48578866088040024
0.37470964118671907
0.1679577637041361
0.4329808125966823
0.4297130942571896
0.6310083201942736
0.37470964118671907
0.1679577637041361
0.48578866088040024
0.4297130942571896
0.1679577637041361
0.48578866088040024
0.22535817229576777
0.1679577637041361
0.5521097296711687
0.4140722402678518
0.36407415208589855
0.37470964118671907
0.4329808125966823
0.16795776370413618
0.5061886002034535
0.49248464513170975
0.243123095915326
0.3998899445200283
0.11698913587105254
0.42379589577523147
0.3884175230291266
0.3340299851555922
0.5786339284327401
0.5786339284327401
0.4756114474628238
0.5786339284327401
0.47021256812299456
0.4756114474628238
0.5668137447085679
0.5786339284327401
0.4702125681229943
0.4756114474628238
0.6661059177956011
0.9890678598006514
0.9890678598006514
0.6661059177956011
0.4702125681229943
0.4702125681229943
0.666105917795601
0.5668137447085679
0.666105917795601
0.4756114474628237
0.666105917795601
0.5786339284327401
0.6661059177956011
0.5668137447085679
0.666105917795601
0.5668137447085676
0.6351157135463892
0.5668137447085676
0.4756114474628238
0.6661059177956011
0.635115713546389
0.5668137447085679
0.3804474082270327
0.3804474082270327
0.3804474082270327
0.4055860366724251
0.3804474082270327
0.4055860366724251
0.3804474082270324
0.46114268214493476
0.3804474082270327
0.46114268214493526
0.3804474082270327
0.46114268214493526
0.46114268214493476
0.46114268214493526
0.3804474082270327
0.3804474082270327
0.3804474082270327
0.4055860366724251
0.3804474082270327
0.4055860366724251
0.4055860366724251
0.4055860366724251
0.46114268214493526
0.3804474082270327
0.3804474082270327
0.46114268214493526
0.4055860366724251
0.4055860366724251
0.4055860366724251
0.4055860366724251
0.46114268214493526
0.46114268214493526
0.4055860366724251
0.4055860366724251
0.4055860366724251
0.34206306185004837
0.45269028984193166
0.45269028984193166
0.45269028984193166
0.45269028984193166
0.34206306185004837
0.34206306185004837
0.45269028984193166
0.45269028984193166
0.45269028984193166
0.34206306185004837
0.45269028984193166
0.34206306185004837
0.45269028984193166
0.34206306185004837
0.34206306185004837
0.45269028984193166
0.34206306185004837
0.34206306185004837
0.34206306185004837
0.34206306185004837
0.34206306185004814
0.34206306185004837
