GIS
1
0.0
8
图书音像
玩乐爱好
服装服饰
家居生活
鞋包配饰
电脑办公
手机数码
母婴童装
14
86 0
2 0 1
2 0 3 6
12 1
57 2
7 2 4
1 2 4 6
3 2 7
13 3
33 4
26 5
1 5 6
26 6
5 7
274
connexion
上来
高潮
城
农
世界
模型
1
指南
正版
金融
20
说
consider
曾
研究
histori
disposit
a
孕产妇
关系
怎么
丹麦
三
与
保健
篇
出版社
phenomena
march
probabl
bf
科学技术
liverpool
and
易
心理学
文献
梁
globe
law
福
勇士
良知
成
caus
which
recollect
97875
基础
westralian
中医
姑娘
电视
of
ipsec
on
9787801744722
风暴
present
cisco
古籍
romanc
volcano
童话
product
传播
old
last
传世
宝库
磊
红
lemurian
determin
state
实战
王国
with
天地
the
past
上海
978754395
vpn
their
的
海
邮
包
牌坊
传说
古建筑
梦
著
何
长廊
中国
荣耀
艺术
金
里
tbna
喜爱
2012
军
夏
皮衣
18
11
民族
短袖
绿色
中
男装
俏皮
格
t
男式
可爱
莱
男
春
棉
正品
仕
恤
select
青少年
卖
思
薄
背心
卡
德
汗衫
热
汗背心
长裤
蛋糕
新
年
复古
品牌
潮
风格
款
修身
411410007
绵羊
外贸
1035
韩国
服
牛仔裤
帽子
1410007
男士
保暖
冬
2013
超
p
秋
新品
毛
皮
装
特价
代购
28
罐
g
组合
元
振兴
盒
瓶
1397
玻璃
调味
调料
套装
跟
转卖
ublu
女式
领子
蕾
领
仿真
披
高
女
丝
台
草
骑士
软
甜美
坡
家
单
花边
蝴蝶结
靴
靴子
柔
短短
兔毛
防水
新款
面皮
鞋
假
经典
认
8
询
请
7216
型号
mbl
s
准
8051
stk
ipd
icl
lar
46
ad
hyb
sop
duoz
7555
专业
93
旺
73311
咨询
诚信
c
机壳
天
保护套
600
cdma
模
双
套
真皮
x
116
待机
手
电信
待
飞利浦
翼
手机
7295
派
8295
酷
老人
超长
机
5879
孕妇
趣
千
会
日本
0.1921034114225516
0.41312642024029483
0.3361420731101188
0.41312642024029483
0.4568847062975513
0.3361420731101188
0.41165362070434003
0.41312642024029483
0.6311712740055949
0.7778392194818071
1.1030333487728
0.3361420731101188
0.41165362070434003
0.1921034114225516
0.3361420731101188
0.4568847062975513
0.1921034114225516
0.1921034114225516
0.8745293130931432
0.4143132551390669
0.4568847062975513
0.4143132551390669
0.3361420731101188
0.4568847062975513
0.4568847062975513
0.4143132551390669
0.3361420731101188
0.3745594477866565
0.1921034114225516
0.1921034114225516
0.1921034114225516
0.3867816217809605
0.4143132551390669
1.2601701866835728
0.19210341142255108
0.4143132551390669
1.1030333487728
0.4143132551390669
0.41165362070434003
0.1921034114225516
0.1921034114225516
0.41165362070434003
0.41312642024029483
0.4568847062975513
0.41165362070434003
0.1921034114225516
0.1921034114225516
1.2601701866835728
0.3361420731101188
0.41165362070434003
0.8745293130931432
0.41165362070433986
0.41312642024029483
0.4568847062975513
0.25557473682839216
0.6311712740055949
0.1921034114225516
0.41165362070434003
0.41312642024029483
0.1921034114225516
0.6311712740055949
0.41165362070434003
0.8745293130931432
0.1921034114225516
0.33614207311011857
0.1921034114225516
0.4568847062975513
1.2601701866835728
0.8745293130931432
0.3361420731101188
0.3361420731101188
0.4143132551390669
0.41312642024029483
0.8745293130931432
0.1921034114225516
0.1921034114225516
0.6311712740055949
0.41312642024029483
0.1921034114225516
0.3361420731101188
0.21844927435165065
0.1921034114225516
0.4143132551390669
0.4143132551390669
0.6311712740055949
0.19210341142255133
0.3074454856746901
0.32086196270693534
0.3074454856746901
0.32086196270693534
0.5843489163530793
-0.25694432587569493
0.026243592269798922
0.5843489163530793
-0.25694432587569493
0.026243592269798922
0.4231252276127434
0.4231252276127434
0.4231252276127434
0.4231252276127434
0.4231252276127434
0.4231252276127434
0.4231252276127434
0.4231252276127434
0.4231252276127434
0.4231252276127434
0.4231252276127434
0.4231252276127434
0.37454326307005675
0.33114344305682764
0.5041395850861412
0.4640189188039604
0.37454326307005675
0.4640189188039604
0.37454326307005675
0.33114344305682764
0.4070430112693255
0.37454326307005675
0.4640189188039604
0.4070430112693255
0.37454326307005675
0.33114344305682764
0.5041395850861412
0.37454326307005675
0.37454326307005675
0.33114344305682764
0.43335695096677956
0.5041395850861412
0.37454326307005675
0.3454373748110366
0.47729811871777883
0.5041395850861412
0.37454326307005675
0.4640189188039604
0.4070430112693255
0.5041395850861412
0.4640189188039604
0.4070430112693255
0.4070430112693255
0.37454326307005675
0.4640189188039604
0.4070430112693255
0.5041395850861412
0.4070430112693255
0.5041395850861412
0.33114344305682764
0.33114344305682764
0.4070430112693255
0.4070430112693255
0.37454326307005675
0.4070430112693255
0.4070430112693255
0.35586119099189245
0.4070430112693255
0.4640189188039604
0.4640189188039604
0.37454326307005675
0.37454326307005675
0.33114344305682764
0.33114344305682764
0.5041395850861412
0.33114344305682764
0.4640189188039604
0.4070430112693255
0.33114344305682764
0.2262070391237818
0.25346433361413456
0.35116078386157795
0.07535729370282479
0.27038990460780193
0.20603656666960965
0.22982438416119444
0.7307440746264201
0.311385612637737
0.21005597376502788
0.39832611266245405
0.2154951866854227
0.2998233552436134
0.07257681932718704
0.32541189573496115
0.12180297844407724
0.22131798815835982
0.05459435920226986
0.6112176435526527
0.05459435920226986
0.6112176435526527
0.21682308549378895
0.5890151003291254
0.3805085113118374
0.3805085113118374
0.3805085113118374
0.3805085113118374
0.3805085113118374
0.3805085113118374
0.3805085113118374
0.3805085113118372
0.3805085113118374
0.3805085113118372
0.38050851131183766
0.3805085113118374
0.3805085113118374
0.31221525574943293
0.37567231376370824
0.37567231376370824
0.3122152557494331
0.37567231376370824
0.37567231376370824
0.37567231376370824
0.37567231376370824
0.37567231376370824
0.3122152557494331
0.3122152557494331
0.37567231376370824
0.3122152557494331
0.37567231376370824
0.3122152557494331
0.3122152557494331
0.3122152557494331
0.3122152557494331
0.8510030770017123
0.8510030770017123
0.37567231376370824
0.8510030770017123
0.31221525574943293
0.3122152557494331
0.37567231376370824
0.3122152557494331
0.37567231376370824
0.3122152557494331
0.37567231376370824
0.3122152557494331
0.5570546237271381
0.37567231376370824
0.8510030770017123
0.5767273119921607
0.49351485347066865
1.2362327427024709
0.5767273119921607
0.9730586933593386
0.5767273119921607
0.9972705726884731
0.49351485347066865
0.5767273119921607
0.9972705726884731
0.9730586933593386
0.7982859370695544
0.7982859370695544
0.5767273119921607
0.49351485347066865
0.5767273119921607
0.7351826190807749
0.49351485347066865
0.49351485347066865
0.7982859370695544
0.5767273119921607
0.49351485347066865
0.7974620520819418
0.5767273119921607
0.7577532265424799
0.5767273119921607
0.29003523528404457
0.3029360071208215
0.33767021409675946
0.33746316946372984
0.33767021409675946
0.33746316946372984
0.33746316946372984
0.33746316946372984
0.3374631694637294
0.33767021409675935
0.33767021409675946
0.33746316946372984
0.33746316946372984
0.33746316946372984
0.33767021409675946
0.33746316946372984
0.33746316946372984
0.33746316946372984
0.33746316946372984
0.3375334090681567
0.33767021409675935
0.3376702140967594
0.33767021409675946
0.3376702140967594
0.33746316946372984
0.33746316946372984
0.33746316946372984
0.33767021409675946
0.6542880932380692
0.6542880932380692
0.6542880932380692
0.6542880932380692
0.6542880932380692
