GIS
1
0.0
8
图书音像
玩乐爱好
服装服饰
家居生活
鞋包配饰
电脑办公
手机数码
母婴童装
13
73 0
2 0 1
2 0 3
12 1
35 2
1 2 4
1 2 4 6
3 2 7
13 3
23 4
11 5
11 6
5 7
192
westralian
中医
姑娘
connexion
电视
of
上来
城
ipsec
on
9787801744722
农
风暴
模型
present
1
cisco
指南
正版
古籍
romanc
volcano
说
consider
研究
histori
disposit
a
孕产妇
关系
怎么
product
三
传播
与
old
last
保健
出版社
march
phenomena
probabl
bf
科学技术
liverpool
and
磊
红
lemurian
determin
易
state
实战
文献
王国
globe
梁
law
with
福
勇士
the
past
上海
良知
which
caus
成
978754395
vpn
recollect
基础
their
的
海
邮
包
著
牌坊
传说
何
长廊
中国
荣耀
艺术
古建筑
金
里
梦
汗衫
热
汗背心
长裤
2012
2013
军
年
皮衣
复古
潮
民族
绿色
风格
中
款
格
修身
411410007
莱
男
绵羊
正品
仕
select
青少年
牛仔裤
卖
1410007
新品
男士
思
薄
背心
德
秋
皮
装
特价
代购
振兴
28
盒
瓶
罐
g
1397
玻璃
组合
调味
调料
套装
元
冬
转卖
ublu
领子
蕾
领
仿真
披
超
柔
丝
兔毛
草
p
新款
毛
家
单
花边
鞋
蝴蝶结
假
经典
hyb
7555
询
7216
旺
mbl
8051
stk
ipd
咨询
icl
7295
机壳
保护套
派
8295
酷
套
真皮
手
5879
手机
孕妇
趣
会
日本
千
0.8745293130931432
0.4250724026182165
0.442710980653001
0.19210341142255166
0.4926337234024808
0.25557473682839216
0.442710980653001
0.442710980653001
0.6880689871642195
0.19210341142255166
0.4250724026182165
0.4926337234024808
0.442710980653001
0.4250724026182165
0.19210341142255166
0.442710980653001
0.6880689871642195
0.6880689871642195
0.5377899538653216
0.4250724026182165
0.8745293130931432
0.19210341142255166
0.4250724026182165
0.19210341142255166
0.4926337234024808
0.19210341142255166
0.19210341142255166
0.8745293130931432
0.42507240261821644
0.4926337234024808
0.42507240261821644
0.19210341142255166
0.4926337234024808
0.4926337234024808
0.4926337234024808
1.2601701866835728
0.8745293130931432
0.42507240261821644
0.42507240261821644
0.19210341142255166
0.19210341142255166
0.19210341142255166
0.42507240261821644
0.42507240261821644
1.2601701866835728
0.19210341142255105
0.42507240261821644
0.442710980653001
0.8745293130931432
0.19210341142255166
0.42507240261821644
0.19210341142255166
0.6880689871642195
0.42507240261821644
0.442710980653001
0.19210341142255166
0.4250724026182165
0.19210341142255166
0.19210341142255166
0.4250724026182165
0.442710980653001
0.2184492743516506
0.19210341142255166
0.42507240261821644
0.4926337234024808
0.19210341142255166
0.19210341142255166
0.4250724026182165
0.42507240261821644
0.6880689871642195
1.2601701866835728
0.4250724026182165
0.19210341142255136
0.33529060817573425
0.3170524641836618
0.33529060817573425
0.3170524641836618
0.4687559412473728
0.00373923446140628
0.4687559412473728
0.00373923446140628
0.4240595377153979
0.4240595377153979
0.4240595377153979
0.4240595377153979
0.4240595377153979
0.4240595377153979
0.4240595377153979
0.4240595377153979
0.4240595377153979
0.4240595377153979
0.4240595377153979
0.4240595377153979
0.40424048043125665
0.47857872065122326
0.40424048043125665
0.47857872065122326
0.47857872065122326
0.47857872065122326
0.4612269136548694
0.40424048043125665
0.4612269136548694
0.40424048043125665
0.40424048043125665
0.40424048043125665
0.4612269136548694
0.40424048043125665
0.40424048043125665
0.40424048043125665
0.47857872065122326
0.40424048043125665
0.4612269136548694
0.4612269136548694
0.47857872065122326
0.4612269136548694
0.46699680992482107
0.47857872065122326
0.4612269136548694
0.40424048043125665
0.47857872065122326
0.47857872065122326
0.4612269136548694
0.47857872065122326
0.40424048043125665
0.4612269136548694
0.40424048043125665
0.40424048043125665
0.4612269136548694
0.3877041733515433
0.2505354004217265
0.34045665770227773
0.0920668672484002
0.22157632166164637
0.03917928759915253
0.6114002393317178
0.03917928759915253
0.6114002393317178
0.21662092197021882
0.5885589970177673
0.35292602440163073
0.35292602440163073
0.35292602440163073
0.3529260244016307
0.35292602440163073
0.35292602440163073
0.35292602440163073
0.3529260244016307
0.35292602440163073
0.35292602440163107
0.35292602440163073
0.35292602440163073
0.35292602440163073
0.3363108433544261
0.3363108433544261
0.3363108433544261
0.3363108433544261
0.3363108433544261
0.3363108433544261
0.3363108433544261
0.3363108433544261
0.3363108433544261
0.3363108433544261
0.3363108433544261
0.3363108433544261
0.3363108433544261
0.7920467803806365
0.3363108433544261
0.3363108433544261
0.7920467803806365
0.7920467803806365
0.3363108433544261
0.7920467803806365
0.7920467803806365
0.3363108433544261
0.7920467803806365
0.7103280401063042
0.7728257100900937
1.2284114324084652
0.9558449573957036
0.8463434399881808
0.9614264901962498
0.9614264901962498
0.9558449573957036
0.7728257100900937
0.8025177779270692
0.7728257100900937
0.33749213457555977
0.3374921345755599
0.3374921345755599
0.3374921345755598
0.3374921345755599
0.3374921345755598
0.33749213457555977
0.3374921345755599
0.3374921345755599
0.3374921345755599
0.3374921345755599
0.6536023864609877
0.6536023864609877
0.6536023864609877
0.6536023864609877
0.6536023864609877
